dense/kernel:0
(6, 6)
[[-0.43997145 -0.18943028 -0.30120775  0.819839   -0.10628514  0.19530927]
 [-0.05821515  0.27994332  0.09450673  1.3973472   0.88543427 -0.46821022]
 [ 0.608548    0.7002961  -0.44577473 -1.6973189   0.8182245   0.55988467]
 [-1.3184072   2.270548    0.12129002  0.39427838  0.06332412 -0.0261985 ]
 [-0.63823986  1.4249494  -0.42905843 -0.13965826  0.99297494  0.94779843]
 [ 2.0096586  -1.0611475  -0.11211388 -0.863915    1.7806004   1.99752   ]]
dense/bias:0
(6,)
[ 0.01166325  0.00259196 -0.02459921 -0.01975255  0.00927944  0.01368182]
dense_1/kernel:0
(6, 12)
[[-2.3161914  -0.51330364  1.3635328  -0.3293622   1.6359138   0.09221143
  -3.5435998   2.0730598  -1.1283338   1.1057792   0.28078213 -3.1843553 ]
 [-1.078101   -0.24085473 -1.5560067   0.0666813  -0.44703582  1.1358694
   0.55578154 -0.36202854  0.3717526   0.462478    0.9478215  -0.08379698]
 [ 0.34326336 -0.22477844 -0.12671952  0.46341324  0.38361606 -0.25585803
  -0.4189532  -0.51767737  0.00828341 -0.5203535   0.5492276   0.28130955]
 [ 0.36718255 -0.39137572  0.19463648 -0.2148807   0.57988465 -0.21289097
   0.92545885 -1.1226174   0.2423251   1.315147   -0.28725174 -1.9790784 ]
 [ 0.7030005   1.0426514  -0.832092   -0.38130262  0.19837849  0.43978333
  -0.26333386 -0.39530846  0.81166035 -0.35927936  0.87206274  0.2808675 ]
 [ 0.16986531  0.7476528  -2.4074059   0.11606688 -0.93782103 -0.7729143
   0.13021043  0.21528088  0.30531198 -1.1206357   0.676653    0.5052245 ]]
dense_1/bias:0
(12,)
[ 0.22622317  0.00275104  0.35049593 -0.06908371  0.17716934  0.01646327
  0.03761183  0.05964503 -0.0011081  -0.11909558 -0.02470683 -0.09433576]
dense_2/kernel:0
(12, 12)
[[ 0.04781979  0.11035699  1.4308805  -0.20074345  0.9122257   1.6909505
  -0.18147787  0.19414549 -0.23721743  0.7341454   0.3363461   0.6753149 ]
 [-0.03018078  0.10342397  0.12519495 -0.19368236 -0.8646441   0.47081235
   0.20464128 -2.0193658  -2.0111067   0.5271962  -0.64412016 -0.20052661]
 [ 0.13374037  0.12074161 -0.27271226 -0.19038701  1.1834996   0.45456064
   0.11833938  1.0330671   1.1782986  -0.2129714   0.41362426  1.4307734 ]
 [-0.36183167  0.32779387 -0.14839627  0.04220617 -0.00892795  0.29530036
  -0.05818572 -0.38545477 -0.3659284   0.07122293  0.3800909   0.06745696]
 [-0.15082791  0.08083656  1.229883   -0.41085622  0.3002951  -0.7791526
  -0.28359038  0.17408834  0.30349323  0.5250925  -0.08274571 -0.32273838]
 [-0.38475198  0.8652004  -1.7393461   0.2628484   0.7311104  -0.52716005
  -0.5724001   0.41543594 -1.5246592  -0.11961864 -0.3885002  -0.45470402]
 [-0.32322818  0.38342467  1.5133953  -0.2752591   0.32969517  0.13886558
  -0.19229712  0.6154203  -0.3955616  -0.6998838  -0.14078513 -0.679167  ]
 [ 0.12316216  0.215316    0.5260306  -0.3702504   0.8660566  -1.7336341
   0.02683758  1.2400149   0.07000563  0.17674646 -0.32185274  0.17482646]
 [ 0.44536862  0.65631676 -0.26459548  0.4538742   0.03921911  0.5461903
   0.32041532 -0.22881636 -3.0204248  -0.06371658 -0.41513762  0.2133681 ]
 [-0.39849326  1.0378003   1.017414   -0.32693174  0.70481676 -2.1268613
   0.29651672  0.34575528 -0.64850473 -0.42625284 -0.47779348  0.27060515]
 [-0.3150637   0.6811257  -0.4779503  -0.45647168  0.06232713 -0.30599883
  -0.25287697 -1.9483144  -5.616441    0.6025087  -0.44469795 -0.98458505]
 [-0.0972985   1.0940156   1.1250067   0.2868241  -0.72746253  0.7655281
  -0.15060934  0.40129858 -0.3917963   0.3270758   0.2219805   0.32052365]]
dense_2/bias:0
(12,)
[-0.09951372 -0.15548436  0.07044182 -0.03246456  0.13717437 -0.34657574
 -0.1740775  -0.07166639  0.08327299 -0.35370293 -0.18775395  0.57963026]
dense_3/kernel:0
(12, 12)
[[ 4.2898571e-01  4.3117523e-01  3.1151593e-01  3.5582116e-01
   4.6231665e-02  3.3230132e-01 -2.7154094e-01  4.0777674e-01
  -3.1582657e-01 -1.5616880e-01 -3.2844663e-01 -3.5688904e-01]
 [ 1.7651075e-02 -3.3840612e-01  9.3759543e-01 -1.9089750e+00
   5.3638320e-02 -1.5778930e+00 -1.2480053e-01 -4.3544230e-01
  -6.0583491e-02 -1.5845688e-01 -2.5109148e-01 -1.1928222e+00]
 [-5.1466867e-02  1.1045621e-01  4.4876611e-01  7.4213266e-01
   1.5098487e+00  2.3607019e-01 -8.9303893e-01  2.2121444e-01
   8.9212883e-01  1.0657587e+00 -4.1304818e-01 -2.9845771e-01]
 [-4.3904579e-01  1.3691032e-01  4.6837458e-01 -7.8424349e-02
   7.6792419e-02  3.2273763e-01  6.9870137e-02  4.7665107e-01
   1.2920947e-02 -2.8535256e-01  1.0142901e-01 -3.1752664e-01]
 [-4.3924582e-01  1.4378172e-02  5.7193257e-02 -2.8478837e-01
  -4.9017641e-01  3.9652386e-01 -1.4789522e-01  1.4324193e-01
   6.7019683e-01  3.6149856e-01 -4.7878483e-01 -1.5170778e-01]
 [-5.7182354e-01  2.6917151e-01  6.9544214e-01  1.0812266e+00
   1.7819163e-01 -8.1495988e-01  5.4307783e-01 -6.0795873e-01
  -3.6301821e-01  1.1887409e-01  2.7537760e-01 -3.7467751e-01]
 [-2.7323413e-01 -9.0024531e-02 -6.7081183e-02  4.3712565e-01
  -3.3397055e-01 -3.5469028e-01 -3.3934510e-01 -2.3962140e-01
   1.7803383e-01 -4.1555890e-01  4.2476681e-01 -3.7482414e-01]
 [-5.2848732e-01 -1.5008801e-01  2.0889942e-01  1.0287905e+00
  -2.1410307e-01  6.8190664e-01  7.5373125e-01  4.1995943e-01
   1.2748429e-01  6.4061028e-01  3.0244374e-01  3.0511728e-01]
 [ 3.7187040e-01 -2.9275417e-01 -9.1057497e-01  1.6387357e+00
   1.6756962e-01  1.2861108e+00  9.7519591e-02 -9.6673691e-01
   3.0522063e-01  4.7164181e-01  3.0831686e-01  2.9453795e+00]
 [-3.7397247e-02 -2.4977478e-01  4.5299777e-01 -7.8311223e-01
   3.8366437e-01  4.5354748e-01  9.9554598e-01  5.0099713e-01
  -1.8458772e-03 -2.2423482e-01 -3.3124575e-01  2.7775362e-01]
 [ 3.5784313e-01 -4.4364691e-02  3.8299069e-01  6.4108390e-01
  -1.8429302e-01  3.8977411e-01 -1.8490587e-01 -1.8983644e-01
   3.1053716e-01  3.4036803e-01 -5.2900368e-01 -1.8837264e-01]
 [-1.6471839e-01 -3.4282443e-01  3.9732748e-01  4.6502730e-01
  -7.9755470e-02  3.7981057e-01  1.2935216e+00  8.3583891e-01
   5.0861001e-01  5.9843194e-01  1.8136200e-01 -1.3609293e-01]]
dense_3/bias:0
(12,)
[-0.3059496  -0.05816568 -0.4888196  -0.345287   -0.37096104  0.18644165
  0.34568906  0.42773783  0.59069693  0.5962648  -0.12886131 -0.27075836]
dense_4/kernel:0
(12, 12)
[[-0.04642701 -0.49124193 -0.03372811 -0.41304207  0.39051044 -0.16988043
   0.13776821  0.2987764  -0.05471301 -0.18067296  0.03733101  0.07673562]
 [-0.37886846  0.33517206 -0.15269947 -0.32769808  0.12183654 -0.19986273
  -0.34262136  0.4466157   0.09250347  0.40861848 -0.37197435 -0.49771488]
 [-0.6506542  -0.21632373  0.5658002  -0.48945796  0.04096996 -1.8507488
  -0.6345383  -0.11427164 -0.1505245   0.31201243 -1.777308   -0.03185046]
 [ 0.5616213  -0.02825809  0.14190225  0.15829696 -0.01949859  0.72648656
   0.9260586  -0.10497749 -0.47481763 -0.49053985  0.37807336  0.30389547]
 [-0.14745127 -0.40260422  0.08588436 -0.48252288 -0.5613276  -0.21132626
  -1.915647   -0.09919655  0.02697287 -0.28581136 -0.49428135 -0.3764062 ]
 [ 0.30734563  0.17716682 -0.52994347 -0.34319443 -0.41854846  0.6181525
   0.5446617  -0.16737533  0.05958598 -1.052487    0.43727094 -0.48362005]
 [-0.17575529 -0.47342873  0.11261183  0.23859672 -0.14841865 -0.00413299
   0.6143543  -0.31326032 -0.56107163 -1.2327353  -0.20383935 -0.26644874]
 [ 0.1395031  -0.1451298  -0.3338162   0.17179245 -0.48340037 -0.7679597
   0.30012196 -0.25967753 -0.05231818 -0.6135463  -0.23546453  0.2912748 ]
 [ 0.5987211  -0.23240602 -0.29463366 -0.031912   -0.3766111  -0.1548967
   0.12147874 -0.02122176  0.30911776  0.626587   -0.22607325 -0.27932775]
 [ 0.5234276  -0.19852662 -0.53681237 -0.34526673 -0.08329353 -0.11545711
   0.18346632 -0.04283822 -0.67659396  0.45210585 -0.38689622 -0.20910847]
 [ 0.2638502   0.05834985 -0.1912113   0.4492058   0.0300746   0.32729688
  -0.29698932 -0.3002442  -0.30749    -0.18309325  0.24192679 -0.1083926 ]
 [ 1.2041302  -0.14676261 -0.07203875 -0.3258442   0.3710208   2.0149558
   1.4364573   0.2886591  -0.30710414  0.20118245  0.9601971   0.27849293]]
dense_4/bias:0
(12,)
[ 0.67815834  0.         -0.6478371  -0.12041208 -0.11946551 -0.43063945
 -0.00951572  0.         -0.14957926 -0.38276017 -0.21505582  0.        ]
dense_5/kernel:0
(12, 12)
[[ 4.9094948e-01 -4.0934449e-01  4.7093520e-01  7.7656686e-01
  -7.6523411e-01 -2.2568005e-01 -2.6030418e-01 -1.8669137e-01
  -1.3158962e-01  4.2752305e-01 -9.0529519e-01  1.5193765e-01]
 [ 2.9583144e-01 -1.2951624e-01  3.3473349e-01  4.8727012e-01
  -2.7296948e-01  1.0256636e-01  4.8520994e-01  7.8824401e-02
   1.2947452e-01  2.1716392e-01  2.1340179e-01  3.7137270e-02]
 [-4.2239320e-01 -6.4511433e-02 -2.5278997e-01 -3.6997417e-01
  -2.9149804e-01 -7.7621120e-01 -4.6863389e-01  3.2839260e-01
   3.4089437e-01 -4.7310326e-01  5.9048074e-01  5.2939290e-01]
 [-1.4302389e-01  3.6187679e-01 -3.6454886e-01  3.8618475e-01
  -4.2007849e-01  4.2744726e-02 -1.0628153e-01 -4.4512916e-01
   3.7837029e-02  8.6158179e-02  2.6401913e-01  3.5444990e-02]
 [ 2.5527966e-01 -4.7700879e-01 -7.2698012e-02  7.3878318e-02
  -1.2221576e-01 -4.8423463e-01 -4.7241724e-01 -4.0465735e-02
  -5.0722861e-01 -6.7856222e-02  2.0564723e-01  2.1488400e-01]
 [ 7.2555631e-01  7.4717116e-01 -7.6556299e-03  1.2019091e+00
   4.2013961e-01  3.0351499e-01  2.3346691e-01 -1.5053563e+00
   6.5941811e-03  2.6844156e-01 -4.1882467e-01 -1.2657306e+00]
 [ 4.4189215e-01  3.3247623e-01 -1.5274015e-01  4.0246609e-01
   1.6190742e-01 -2.3249602e-01  5.4839118e-03 -4.4951458e-03
  -3.0445126e-01  1.9403209e-01 -5.7654589e-01 -7.4844795e-01]
 [ 5.8408141e-02  1.6544342e-01 -1.4439666e-01 -2.8875375e-01
   3.8096547e-01 -5.4895878e-04  2.6803446e-01  4.5672715e-01
  -4.3033898e-01  4.0332913e-01 -9.4196916e-02 -4.1283357e-01]
 [-1.9057462e-02  2.2277287e-01 -2.0180090e-01 -2.1881615e-01
   6.7936115e-02  1.7184979e-01  3.3609879e-01 -4.2773074e-01
  -4.7399306e-01  4.6298271e-01  1.2338971e-02  2.0783484e-01]
 [-2.2563446e-01 -2.2183131e-01 -5.5464429e-01 -4.6023464e-01
   5.9514886e-01 -1.0696427e+00 -4.1843063e-01  7.2560143e-01
  -5.7753053e-02 -3.0228469e-01  3.0691391e-01  1.8187385e-02]
 [ 5.1034129e-01  3.2330367e-01 -2.0103423e-01  2.2344318e-01
  -9.8165177e-02  1.2606214e-01 -4.5538023e-01 -2.3956788e-01
   4.6227777e-01  4.5985210e-01  5.5530667e-02 -3.7477741e-01]
 [ 3.5901618e-01 -4.4609141e-01 -1.9367611e-01 -2.4117804e-01
  -4.4435108e-01  7.6518893e-02 -2.2784030e-01  1.8947589e-01
   4.6473479e-01 -7.7689648e-02  3.2204223e-01  4.7705603e-01]]
dense_5/bias:0
(12,)
[ 0.47904715 -0.17595479  0.14662528  0.3866096  -0.18395433  0.4253598
 -0.02788486 -0.4020023  -1.2237238   0.302975   -0.3500465  -0.5082299 ]
dense_6/kernel:0
(12, 12)
[[ 2.31179819e-01 -1.10957354e-01 -5.29917717e-01 -2.03655660e-03
   5.38252711e-01  1.55740514e-01 -2.51441419e-01 -1.02907635e-01
   4.39011425e-01  6.51577055e-01 -5.73606566e-02  1.40774408e-02]
 [ 1.48541123e-01  5.48634082e-02  1.58920258e-01 -4.08331931e-01
   7.53066987e-02 -4.01479393e-01 -3.69928747e-01  3.88901159e-02
  -5.64185500e-01  1.81958705e-01  9.47635829e-01 -5.88651523e-02]
 [-2.15712562e-01  1.14223519e-02 -1.30516246e-01  2.21280083e-01
   2.90448636e-01 -1.27842277e-01 -2.46469975e-01 -5.27152538e-01
  -1.41826481e-01  5.03613353e-01 -5.77089787e-01 -7.14252472e-01]
 [-1.94115490e-01 -5.86712956e-02  1.44471750e-01  1.86244607e-01
   1.59461930e-01 -3.45877588e-01  3.38166595e-01  2.00891003e-01
   7.87620246e-01  7.23659456e-01  6.31733909e-02  1.57891184e-01]
 [ 1.04886480e-01  4.58007008e-01 -1.03543125e-01  2.60341018e-01
   4.36486065e-01  5.67210428e-02 -4.37943190e-01 -4.80946213e-01
   1.11982651e-01  2.46530607e-01  2.78337836e-01 -1.51255339e-01]
 [-2.70871520e-01  4.22213316e-01  8.11851203e-01 -1.76829219e-01
   4.68656629e-01  2.95570314e-01 -5.79618216e-02  2.00432423e-03
   4.75069106e-01  1.15346894e-01  2.51486391e-01 -2.86546260e-01]
 [-3.62994552e-01 -4.00099605e-01 -1.83227390e-01  1.07713863e-01
   4.41936046e-01 -2.88964927e-01  3.04333687e-01 -2.07692266e-01
   3.72269213e-01 -1.86820239e-01  5.05023539e-01 -1.17032602e-01]
 [-2.37647265e-01 -1.01915514e+00  3.67776155e-01 -1.75583437e-01
   1.56687468e-01 -1.23193733e-01 -1.93514109e-01  1.53111070e-01
  -1.83342338e-01 -5.83742976e-01 -2.59218383e+00 -1.05217092e-01]
 [-2.32389897e-01  1.98241562e-01  1.54273665e+00 -1.47346556e-01
   2.05292851e-01  3.41334045e-01  1.37722492e-02  1.26336530e-01
  -1.64217338e-01  8.08622502e-03 -1.60396785e-01  1.75171152e-01]
 [-1.05494678e-01 -1.40717134e-01  1.30931199e-01 -5.96736014e-01
   1.94158241e-01 -1.42990202e-01 -1.81791827e-01 -3.46456170e-01
   4.48949158e-01  2.13435978e-01  5.87961599e-02  4.65499759e-02]
 [-9.27891016e-01 -2.27080643e-01  8.46599102e-01 -6.15187764e-01
  -6.39415503e-01 -4.24395829e-01 -1.06587410e-01 -5.32834709e-01
  -7.33081639e-01 -5.73939860e-01 -3.94295901e-03 -6.47924185e-01]
 [ 5.83779886e-02 -1.48093373e-01  5.17915070e-01 -6.66118801e-01
  -3.75804037e-01  7.95440450e-02  6.87162727e-02  3.69900972e-01
   2.07350761e-01 -7.16907442e-01 -1.27078938e+00 -7.53635705e-01]]
dense_6/bias:0
(12,)
[-0.06406119 -0.12170835 -0.3175486   0.02371299  0.19325173 -0.15961762
 -0.02282894 -0.08517365  0.37411654  0.33051905 -0.37684482 -0.13244419]
dense_7/kernel:0
(12, 12)
[[-0.37646967 -0.4750342  -0.06217638 -0.24050285  0.02329927  0.02444256
  -0.55744797  0.24560863  0.05868466  0.1438178  -0.22287577 -0.38578445]
 [ 0.401523    0.08162591  0.01615858  0.29458255  0.00803197 -0.3529735
   0.16582668  0.09655998 -0.58740336  0.0318683  -0.00636241  0.14480595]
 [-0.4779169  -1.1203722   0.683694   -0.25912136 -0.43196738 -0.08160856
  -0.8810074   0.07043538  0.01414831 -0.92867327 -0.34555146 -0.200904  ]
 [ 0.0181981  -0.2562243   0.01671598  0.03843695 -0.0150407   0.13338664
  -0.24725728 -0.14355059 -0.31110018  0.00680868 -0.08128164  0.18784264]
 [ 0.13196376 -0.20009954  0.10944626 -0.15265565  0.03057964  0.3083626
   0.0330475  -0.27101892  0.3207093   0.30195725 -0.52942526  0.06699963]
 [ 0.04585788 -0.00871596 -0.24075766 -0.3834118   0.39401543  0.0257611
  -0.242802   -0.6008119  -0.47647193  0.13152844 -0.39946207 -0.8269787 ]
 [-0.15936184  0.2784491   0.22052646 -0.10836871 -0.34585285 -0.27383482
  -0.21401572  0.12728     0.2405461  -0.19868816  0.30872548  0.2398666 ]
 [ 0.22507635 -0.28897262 -0.4694482   0.02736728 -0.35552213  0.1859822
   0.34740317 -0.23339303  0.18256819  0.15328312  0.24403897  0.28998092]
 [-0.13579524  0.27350917 -0.17045552  0.28971717 -0.21283852 -0.1345439
  -0.23145749  0.15204285 -0.05928662  0.6843974   0.26883858 -0.53431183]
 [-0.24077775  0.5807688   0.13603029 -0.18165854  0.01934223  0.32865432
  -0.0461365   0.02655548 -0.15853101  0.6220945   0.0362106  -0.06317662]
 [ 0.5072827   0.28064975  0.6020639   0.12489112  0.6925006   0.00769523
   1.0480796  -0.02992392  0.21507655  0.27168474 -0.2794713   0.18358447]
 [-0.31974423  0.03198871 -0.2579363   0.48955902  0.00185471  0.24504255
   0.43885097 -0.24382675 -0.3109438  -0.18715835  0.3534706   0.5992208 ]]
dense_7/bias:0
(12,)
[-0.04642904  0.15777409 -0.2785619  -0.08078179 -0.05413577  0.4947298
 -0.15641616 -0.413753   -0.21256816  0.34991896 -0.15974864 -0.01840116]
dense_8/kernel:0
(12, 12)
[[ 3.55371922e-01 -2.89009064e-01  3.87737185e-01  1.08746260e-01
   4.76127006e-02  5.49154282e-02 -3.99182051e-01  2.82194912e-01
   2.88696021e-01  1.22636110e-01  3.58452767e-01  2.63088137e-01]
 [ 1.66308865e-01 -4.08250779e-01  4.76028830e-01 -7.48544112e-02
  -1.20668314e-01 -4.22494411e-02 -4.00034338e-02  1.95509598e-01
  -2.27303505e-01 -3.05321783e-01 -4.75124389e-01 -1.50422975e-01]
 [ 8.60290587e-01 -4.73899096e-01  8.50298256e-03  6.59272730e-01
   7.53643662e-02 -5.14636040e-02 -1.12760767e-01  1.69479996e-01
   3.49313349e-01 -8.23186219e-01 -1.03374332e-01  1.03818321e+00]
 [-1.81071758e-01  1.59340993e-01  1.22057281e-01 -3.78753841e-01
  -2.74882078e-01 -2.22043157e-01 -1.38389140e-01 -6.48052394e-01
   3.23104411e-01 -3.51465017e-01  1.10076234e-01  2.48749465e-01]
 [ 1.65018737e-01 -3.35541964e-01 -9.52980593e-02 -6.19233727e-01
  -3.05145591e-01 -9.62666273e-02  1.43112004e-01  4.73109037e-02
  -1.32054478e-01  1.91140816e-01  4.57752794e-01  5.28747499e-01]
 [ 8.59493837e-02  1.27864294e-02  3.92954022e-01 -1.31731331e+00
  -4.69301730e-01 -2.59261012e-01 -1.57224968e-01 -7.43115187e-01
  -1.50117087e+00 -3.32769573e-01  1.22036552e-02 -1.09635994e-01]
 [-1.51241288e-01 -1.49980783e-01  2.43875176e-01  3.53170425e-01
   3.41274850e-02 -2.13803411e-01 -1.27882272e-01 -2.49364823e-01
  -3.73099595e-01  1.11848548e-01 -1.63827717e-01 -2.66019011e+00]
 [-2.22542301e-01 -3.37317973e-01  5.72866760e-02 -6.29082993e-02
  -2.34987587e-01 -4.25309777e-01  9.41894352e-02  5.10507584e-01
  -3.04886043e-01 -3.94011885e-02  1.58618197e-01  3.22560966e-01]
 [-1.04639888e-01  4.15345073e-01  1.90729387e-02  1.15411282e-02
  -4.25970286e-01 -4.92338777e-01  1.34192675e-01  3.95596147e-01
  -1.47472709e-01  1.88934401e-01 -2.13587984e-01  2.86700517e-01]
 [-2.15808481e-01 -5.31943627e-02  6.34687304e-01 -6.16275123e-04
   2.05885306e-01  1.82375908e-02  5.27413964e-01 -7.47980848e-02
  -1.10434569e-01 -1.01793408e-01 -7.62370005e-02 -5.54225981e-01]
 [ 1.52659416e-02 -3.17322850e-01 -1.09960079e-01 -2.68397629e-01
  -2.21011847e-01 -8.28826427e-02 -4.54776958e-02 -3.68357182e-01
   1.70452535e-01 -3.29527348e-01 -4.57528979e-01  1.27416372e-01]
 [-2.84728765e-01 -1.07187502e-01 -2.23353952e-01 -8.09371233e-01
  -4.46053535e-01 -4.25869823e-01  1.15837723e-01 -5.64537048e-01
   2.06969902e-01  3.27274770e-01  2.69906610e-01  1.91994265e-01]]
dense_8/bias:0
(12,)
[-0.4280489  -0.27146628  0.07808928 -1.2311069  -0.25021082  0.
  0.20577955 -0.6088601  -1.1525936   0.4542981  -0.0152802   0.1463206 ]
dense_9/kernel:0
(12, 12)
[[-2.42991686e-01  4.17121828e-01  7.19750762e-01  9.79231074e-02
  -2.45831817e-01 -3.36732358e-01  2.20252648e-01  2.24968433e-01
   5.52434981e-01  3.67306113e-01 -1.00883722e-01  1.41667917e-01]
 [-3.65240097e-01  3.72622490e-01  1.77808613e-01  2.80701995e-01
   6.46992922e-02  1.48257852e-01 -3.47361088e-01  1.73425317e-01
   3.17503095e-01  3.72657150e-01  4.39117908e-01  4.70198631e-01]
 [-2.95632601e-01 -6.98880479e-02 -9.91143763e-01  5.61621308e-01
   2.83673018e-01 -1.12491101e-01 -1.50047922e+00 -3.91602725e-01
   6.09050542e-02 -3.07435066e-01 -4.11785960e-01 -4.69286084e-01]
 [-4.84609485e-01 -6.29573092e-02  1.78425884e+00 -2.29310706e-01
  -6.98493719e-02 -1.11244299e-01  5.87712467e-01 -1.99686170e-01
   1.67246592e+00 -3.82858783e-01 -3.99845958e-01 -2.64405817e-01]
 [ 2.58584261e-01  2.50276178e-01  3.88561785e-01  6.18335977e-02
  -1.22574307e-01 -1.98500156e-01 -3.12133223e-01 -2.23490357e-01
   2.05622643e-01 -1.18527390e-01  8.24689865e-04 -1.34632945e-01]
 [-1.63419843e-01  2.02714205e-02  3.90813112e-01  4.26898837e-01
   1.54613972e-01  8.53068829e-02 -1.03818178e-01 -3.57803106e-01
  -3.57363820e-01 -4.28166866e-01 -3.78875017e-01  3.51441026e-01]
 [-9.01809931e-02  1.44547448e-01  2.98373193e-01  4.01177108e-01
   2.72392720e-01 -4.26361352e-01 -6.32053256e-01 -4.11589853e-02
  -4.38678026e-01  2.36917660e-01 -8.45943689e-02  3.04933339e-01]
 [-9.26438570e-02 -7.11582541e-01  5.59645355e-01 -3.67008537e-01
   9.15977433e-02 -7.57566839e-02  5.21962404e-01 -2.27775887e-01
   5.88213563e-01 -5.53029418e-01 -7.06564188e-02 -3.84906858e-01]
 [-2.08788276e-01 -1.02611530e+00  1.21068156e+00 -1.45721030e+00
   7.49717057e-02  3.17286640e-01  3.03571433e-01 -4.91073966e-01
   2.31700659e+00  8.70302245e-02  2.40169883e-01 -5.17031550e-01]
 [ 2.38940477e-01 -7.80919790e-02  4.15471166e-01  1.07889526e-01
  -5.35184681e-01 -5.61195910e-02 -2.16701627e-01  8.73160362e-03
  -3.71620268e-01  2.21870944e-01 -3.18388581e-01 -2.66769290e-01]
 [-1.51129365e-01  1.92504600e-01  1.45924255e-01 -3.29510048e-02
  -3.73682290e-01 -1.91762567e-01 -4.60891396e-01  2.63972104e-01
  -4.83420044e-02  1.89592302e-01 -1.46744609e-01 -1.81315377e-01]
 [-4.23305392e-01 -3.36323142e-01 -2.05369771e-01 -7.97980353e-02
  -5.37172914e-01  7.62795210e-02 -3.52678090e-01 -2.37933666e-01
   7.40906477e-01 -4.02566701e-01 -4.19717193e-01 -1.69841602e-01]]
dense_9/bias:0
(12,)
[ 0.         -0.12235976 -0.9525263   0.1246615   0.016788   -0.00587272
 -0.90266603 -0.16939959  0.1737369  -0.0357613   0.         -0.18953224]
dense_10/kernel:0
(12, 1)
[[ 0.02238023]
 [ 0.02652123]
 [ 0.52447444]
 [-0.5565994 ]
 [-0.15963583]
 [-0.02417392]
 [ 1.4720217 ]
 [-0.6681573 ]
 [ 0.7698957 ]
 [-0.04897204]
 [ 0.58839774]
 [-0.3758434 ]]
dense_10/bias:0
(1,)
[-0.13680868]
