dense/kernel:0
(8, 8)
[[ 0.46922645  0.26653963  0.02587483  0.3543951  -1.7315791   0.09279934
   0.31398186 -0.12186728]
 [-0.4252914   0.26661542  0.54719716  0.49920163  0.05398024  0.3726332
  -0.12991081 -0.3141779 ]
 [-0.22343123  0.30439216  0.657364   -0.34255314 -0.879026   -0.08186722
   0.62568885 -1.8759471 ]
 [-0.60211325  0.9630094  -1.2342272   0.7301261   0.59924287 -0.22399558
   0.25445148  1.0717736 ]
 [ 0.37073     0.18513924 -0.8023536  -2.1445594  -0.38969323 -0.62622863
  -0.3258605  -0.5931511 ]
 [ 0.06784776  0.6223309  -0.5062646  -0.1835967   0.53066754 -0.5009403
  -0.29445392 -2.9097042 ]
 [-0.5178575   1.2694802  -0.15770824 -3.3292482   0.09146389 -0.45670354
  -0.07996066 -2.0586448 ]
 [-0.3538376   0.28077418  0.23228967 -0.9462156  -1.5403486   0.4489452
  -1.0979342  -0.9594179 ]]
dense/bias:0
(8,)
[-7.8428760e-02 -1.4021828e-04  2.6526785e-01  1.4268591e-01
  2.0221458e-01  2.5322926e-01  3.4449151e-01  3.4244829e-01]
dense_1/kernel:0
(8, 10)
[[-1.53422177e-01 -9.64992046e-02 -5.37363768e-01 -2.14643434e-01
  -4.53470424e-02  4.76611964e-02  3.86252373e-01  4.82068807e-01
   3.26071471e-01  1.93944618e-01]
 [-4.71733868e-01 -1.22474015e-01 -2.53288716e-01  2.58272082e-01
  -4.40766186e-01  8.69915128e-01 -1.75266027e-01 -2.57554340e+00
  -3.53878438e-01 -2.17483521e-01]
 [ 6.94712162e-01  4.90554035e-01 -2.50218119e-02  3.65622789e-01
  -4.32120085e-01  2.79674143e-01 -1.46722514e-03 -2.48391926e-01
   6.87189698e-01 -3.27553958e-01]
 [ 1.19599640e+00  1.36271983e-01 -5.59108853e-02  3.22348028e-01
   5.42502284e-01 -4.80635881e-01 -4.86671239e-01  1.90813994e+00
   6.30380929e-01  1.76661432e-01]
 [-1.40934333e-01  1.90422032e-02 -1.30187795e-01  3.77403289e-01
   2.06675828e-01  1.75275102e-01 -4.02639925e-01  5.02400815e-01
  -4.91671443e-01 -3.02997082e-01]
 [ 4.40771341e-01  6.75930262e-01 -2.15790927e-01  8.04907978e-02
  -5.38368225e-01  4.67280507e-01 -1.28321841e-01 -4.52326715e-01
   4.80117440e-01  2.76098788e-01]
 [ 4.96498138e-01  8.53472590e-01  3.84941787e-01 -8.80390629e-02
  -1.87525600e-01 -4.37894672e-01  2.28605837e-01 -2.28521600e-02
   1.27463877e-01 -2.12398171e-02]
 [ 8.33016992e-01  3.81816298e-01 -5.10448992e-01 -3.99000585e-01
  -1.03254057e-02 -4.77843314e-01 -1.27065375e-01  1.98483956e+00
   1.13625431e+00 -1.74760804e-01]]
dense_1/bias:0
(10,)
[ 0.3655142   0.33307695 -0.05021672 -0.16933838 -0.05024352  0.05668516
 -0.04136328 -0.6264397   0.33906382 -0.04312178]
dense_2/kernel:0
(10, 10)
[[-0.4713504   0.10376465 -0.2018761   0.31696627 -0.4285419  -0.12140273
  -0.40339118  0.7917278  -0.24161012 -0.09150378]
 [-0.97280824  0.17444856 -1.5304251   0.49514678 -1.3379564  -0.1631645
  -0.35721838  0.43094236  0.44305435 -0.29831812]
 [-0.28127682 -0.28342274  0.32729918 -0.1844851  -0.21875986  0.49663052
  -0.21018356 -0.5269435  -0.2220653   0.43937337]
 [-0.13160877  0.43284038 -0.12704615 -0.34729463  0.5164036  -0.19949241
   0.2795524  -0.01345463  0.26417637 -0.14255789]
 [-0.16700566  0.27889    -0.5017388   0.27863538  0.47695935  0.35505617
  -0.03287118 -0.23884821 -0.52266735  0.05685576]
 [ 0.7522031  -0.37989703  0.6943512  -0.40093717  0.3377485   0.56524605
  -0.21274582 -0.55450344  0.7094116   0.10134116]
 [-0.1787281  -0.01645475 -0.46085203 -0.49313906 -0.05502489 -0.39985126
  -0.17847803 -0.3987297   0.38659245 -0.31098613]
 [-0.11629498 -0.26868656 -0.18480757  3.745899    0.03992651 -0.56022036
  -0.0332587   4.5659437  -0.2932532  -0.07406788]
 [-0.26625216 -0.3616767  -0.17586666  0.45358104 -0.7909278   0.18415019
   0.14393753  0.5156485  -0.15434936 -0.5120209 ]
 [ 0.29077244  0.21238577 -0.185545   -0.3447741  -0.4269307   0.3935586
   0.5352971   0.45830992  0.49923196 -0.0926984 ]]
dense_2/bias:0
(10,)
[-0.20023519 -0.10732795 -0.3316309   0.12834507 -0.15635791  0.11979808
 -0.02903383  0.25971806  0.0632416  -0.19757248]
dense_3/kernel:0
(10, 10)
[[ 0.47947815  0.58475065  0.2820436   0.45921013 -0.16924486 -0.57500726
   0.5006181   0.72873443 -0.00860975 -0.15862913]
 [ 0.4306352  -0.27535513  0.28118634  0.00691554  0.20780377 -0.2331638
   0.36300933  0.14449385  0.03389728 -0.27713487]
 [ 1.6331006  -0.9137277  -0.80577976 -0.96072924  0.3245861   0.30485117
  -0.43905368  2.3537812  -0.20264862  1.2636169 ]
 [-0.8349745   0.63410884  0.4388708   0.10500256 -0.337996    0.5843305
   0.3385243   0.38991678  0.67533666  0.17937751]
 [ 0.78068966 -0.32161403 -0.5176967  -0.6486351   0.14963233 -0.6026065
   0.04184363  1.3478862  -0.8099241  -0.0552552 ]
 [ 0.27228215  0.12006455 -0.07794044  0.09601144 -0.4953744  -0.62436074
  -0.3595137   0.1669485   0.11780691  0.409909  ]
 [-0.43793225  0.12745722  0.53826874 -0.19724989  0.11548418 -0.19475546
   0.00675642 -0.4248687   0.39681813 -0.11961789]
 [-1.7972835   0.6856307   0.54723734  0.49462608 -0.12651633  0.776972
   0.5673414  -0.43706238  0.21683325 -0.2444886 ]
 [ 0.65179944 -0.5711335  -0.12563178 -0.14369425 -0.2602515  -0.72083163
  -0.39113092  0.13739999 -0.15356359  0.47877035]
 [-0.00740064  0.2854385   0.12424437  0.2989252  -0.21530858  0.16576721
  -0.4681222  -0.5351416  -0.5413142   0.10794814]]
dense_3/bias:0
(10,)
[-0.16315551  0.11600334  0.14531766  0.02269606 -0.02883775  0.08068585
  0.09068964  0.11312141  0.10382677  0.39225355]
dense_4/kernel:0
(10, 10)
[[-1.75823435e-01  1.98015004e-01 -7.74040401e-01  1.53754890e-01
   7.82653466e-02 -2.77222306e-01 -4.81559128e-01  8.81022751e-01
  -5.28425097e-01 -3.19576859e-01]
 [ 4.69954610e-01  5.71409822e-01  2.64442563e-01  3.41251969e-01
  -2.85194784e-01 -2.42436647e-01 -4.23664302e-01  3.84996994e-03
   4.68609482e-01 -4.61747587e-01]
 [-4.26603138e-01  3.30184519e-01 -3.49233806e-01  5.01931548e-01
   3.46771508e-01 -1.91197127e-01 -3.27275395e-01 -4.93214056e-02
   7.12786019e-01 -3.23319763e-01]
 [-1.86976999e-01 -1.32939920e-01  9.72060859e-02  5.18347144e-01
  -2.94174701e-01 -3.99780422e-01 -1.30437315e-01 -1.54540107e-01
   5.07881166e-03 -5.42329431e-01]
 [-3.17852974e-01  8.34423378e-02  4.02697474e-01 -2.56391793e-01
   4.02458981e-02  3.22221816e-01 -3.78456593e-01 -4.48605418e-01
   3.48232746e-01  2.03351259e-01]
 [ 5.49945295e-01  4.26324755e-01  2.18427777e-02  1.64289549e-01
   1.14848234e-01 -2.39403099e-01  4.15976763e-01  1.78310111e-01
   5.88084698e-01 -2.69488066e-01]
 [ 2.58986831e-01  3.85251224e-01  5.58054268e-01 -2.28260279e-01
   2.08775803e-01 -4.95081156e-01 -5.92679381e-02 -1.30064845e-01
   6.52545094e-01 -2.64915019e-01]
 [-1.47969735e+00 -3.27358872e-01  1.08822837e-01 -6.92788959e-01
  -6.68529034e-01  1.32186024e-03  1.54972970e-01  7.19469607e-01
  -1.43239722e-01  3.33951592e-01]
 [-4.35075670e-01  2.29632240e-02  1.16873816e-01  3.39546621e-01
  -2.52497673e-01 -1.31235093e-01 -3.24816942e-01  4.04721461e-02
   4.56152946e-01  5.25400758e-01]
 [-3.05140400e+00 -6.72063768e-01  3.51573735e-01 -3.90502095e-01
  -1.75754204e-01  9.61065963e-02 -2.13811666e-01  3.57715994e-01
   3.21027935e-01 -1.92971706e-01]]
dense_4/bias:0
(10,)
[-0.04044937  0.17107238  0.25902677  0.15803255  0.10514957 -0.08756867
  0.         -0.2365547   0.20503695 -0.06649278]
dense_5/kernel:0
(10, 10)
[[ 0.6256345   0.4183396  -0.46742985 -0.43857044  0.34762493  1.048761
   0.5415923  -0.47598916  0.3883394  -0.10885385]
 [ 0.45722613 -0.6773113  -0.31299502 -0.21249965  0.1590174   0.3148906
   0.02737259 -0.19034144 -0.43505648 -0.00913643]
 [ 0.46140265 -0.35506025  0.5109546  -0.40940863  0.15312356 -0.10149892
   0.52853554 -0.14534597  0.12766011 -0.31233343]
 [ 0.41855615 -0.7717427   0.09812951 -0.46701184  0.5586903  -0.26670715
  -0.25607714  0.07049929 -0.25015593 -0.07884079]
 [-0.26510873  0.30211827 -0.2058529   0.20974736  0.07275593  0.43954292
   0.5435629  -0.5388902  -0.43031773 -0.12624285]
 [ 0.43931705  0.41418242  0.53927815  0.44905573  0.1871413   0.1653466
   0.04242557 -0.03870082  0.31546444 -0.4835452 ]
 [-0.5433402   0.09086901  0.00319105  0.40829378 -0.00119108  0.32965314
   0.00170428 -0.058779   -0.15189725  0.255248  ]
 [ 0.03037256  0.922121   -0.43847197 -0.511256    0.05467993  0.04425099
  -0.24148506 -0.1339686  -0.32557735 -0.05728917]
 [ 0.21802777 -0.32729393 -0.49799234 -0.04889189  0.5859574   0.5954079
  -0.12007207  0.13113882 -0.06184302  0.14929713]
 [ 0.4719933  -0.36731544 -0.1527876   0.45770043 -0.24380352 -0.42033613
   0.1132507  -0.133097   -0.2039688   0.13767105]]
dense_5/bias:0
(10,)
[ 0.2198822   0.17388447  0.         -0.07968517  0.22154205  0.22178479
  0.10219827 -0.13033566 -0.06356595 -0.12852523]
dense_6/kernel:0
(10, 1)
[[-0.24935119]
 [ 0.61636776]
 [ 0.24190706]
 [-0.31298918]
 [-0.27812055]
 [-0.20880434]
 [-0.0307209 ]
 [-0.00270385]
 [ 0.02245934]
 [-0.01711411]]
dense_6/bias:0
(1,)
[-0.22880669]
