dense/kernel:0
(2, 2)
[[ 0.04102628  0.9382377 ]
 [-0.8855184   0.2811368 ]]
dense/bias:0
(2,)
[-0.0614402  -0.08903591]
dense_1/kernel:0
(2, 10)
[[ 0.07449001  0.01396006  0.60368806 -0.2079952   0.5629765   0.15871829
   0.06791979  0.07943077  0.40084928 -0.15964246]
 [-0.39564562 -0.6943174   0.05014721 -0.68577236  1.1628636  -0.3914776
  -0.501969    0.6111872   0.7371202  -0.05723792]]
dense_1/bias:0
(10,)
[ 0.          0.         -0.05942119  0.         -0.00224798  0.
  0.         -0.02629553 -0.5702004   0.        ]
dense_2/kernel:0
(10, 10)
[[-0.42349064 -0.17406926 -0.19066143 -0.01964426 -0.346218   -0.5142894
  -0.04549867  0.5048554   0.45935667 -0.35222018]
 [-0.46845353 -0.25373715  0.08608413 -0.2967654   0.25079042 -0.18499222
   0.424788    0.06485587 -0.53739053 -0.5053004 ]
 [ 0.27280825 -0.22900939 -0.19918473 -0.21763642  0.19642399 -0.19488356
   0.00707603 -0.5494591  -0.16982839  0.38158426]
 [-0.11587423  0.10723746  0.22265232  0.24908352  0.23470992 -0.37567818
   0.17343879  0.3924768  -0.4860641  -0.04443711]
 [ 0.57528263 -2.345285    0.7481427   0.8501119   0.688836    0.8291726
  -0.6263498   0.12967966 -0.06283503 -0.2922871 ]
 [ 0.4635744   0.37936652 -0.50870967  0.22939944 -0.28809348  0.15689236
   0.02038753  0.54178405 -0.02162576 -0.2834537 ]
 [ 0.00910938 -0.42604047 -0.19225314  0.07938856 -0.1470671  -0.15828088
  -0.39581996  0.45617795 -0.3259596   0.18008345]
 [ 0.3999553  -1.0846969   0.47844225  0.34609658  0.3782098   0.49941862
   0.10453053 -0.5967871  -0.3463829  -0.81339234]
 [ 1.0467626   0.08650726  1.1431255   0.8074121   0.9089194   0.6038903
   0.00990701  0.36097243  0.24159464  0.38804448]
 [-0.10388634 -0.47863996  0.04582906  0.38052285  0.36500883  0.25016284
   0.01283711  0.17184496  0.03819257  0.4913174 ]]
dense_2/bias:0
(10,)
[-0.04342645  0.4046532  -0.03509495 -0.52644837 -0.12508959 -0.0317546
 -0.076569   -0.0594218  -0.03001538  0.29383817]
dense_3/kernel:0
(10, 10)
[[ 0.31980747 -0.14508137  0.17711335 -0.2836201  -0.21228392 -0.38614082
   0.3811685   0.1073794  -0.27291557  0.7313018 ]
 [-0.01840791  0.10193097 -0.32567424  4.622278    0.14797062 -0.04081447
  -0.2118057  -0.05953754 -0.33322063  0.10356424]
 [ 0.10202812 -0.20901036  0.15002334 -0.11475313  0.10089944  0.73051435
  -0.14737312 -0.20400758 -0.54707235  0.60023767]
 [ 0.21141769  0.03166282 -0.1199607  -0.60183704 -0.42582968  0.19365887
   0.17414673  0.14740482 -0.37385195  0.85809934]
 [ 0.15935864 -0.461281   -0.2625822  -0.20622422 -0.5679285   0.05243992
  -0.02275966 -0.45777813  0.0154559   0.17065065]
 [ 0.5033226  -0.32019025 -0.5356259  -0.51472116  0.15258266  0.5098234
  -0.44588125  0.30578965 -0.17205861  0.41369197]
 [-0.1421427   0.399054    0.08191919  0.20514384 -0.38851884 -0.36802447
  -0.02898252 -0.47878337  0.5064374   0.2818414 ]
 [ 0.49649793  0.31034112  0.4943292  -0.3763515   0.5325408   0.1668773
   0.20577209  0.28178906 -0.31197476 -0.3466947 ]
 [-0.21628757 -0.02949286 -0.06289068  0.53046775  0.37986535 -0.41906938
  -0.07235721 -0.13919896  0.05880815 -0.09215869]
 [ 0.23887224 -0.2597578  -0.40063447  0.8068952  -0.21862227  0.20357215
   0.2731218  -0.03229294  0.00538579 -0.28580767]]
dense_3/bias:0
(10,)
[-0.07006201 -0.15363158  0.          1.391858   -0.11234707 -0.04963636
 -0.07940839 -0.0643844  -0.14155398  0.02930023]
dense_4/kernel:0
(10, 10)
[[ 0.10411283 -0.62420636 -0.6902188   0.41795805 -0.03344307 -0.380152
  -0.36979672  0.29304904  0.5476595   0.2813226 ]
 [-0.15701538 -0.4139601  -0.47567263 -0.09759465  0.53184235  0.23730391
  -0.24239485  0.3072992  -0.10967031  0.08554851]
 [-0.5082911  -0.23735458 -0.3516427   0.4685806  -0.4938228  -0.38622415
  -0.09595302 -0.5205594   0.23844379  0.03580391]
 [ 1.7291723  -0.07089929 -0.13225383 -4.4436526  -0.06592692 -0.48333222
   0.97518694 -1.8639959  -1.2724056  -0.1219036 ]
 [-0.46460357 -0.12898493 -0.5300783   0.46853366 -0.2999703   0.50977266
   0.4785744   0.47091666  0.10608182  0.31642556]
 [-0.08541793 -0.47828028 -0.19985835  0.47412628 -0.00574552  0.5005131
  -0.45023203  0.50393146  0.68766093  0.25635767]
 [-0.17957011  0.5355891  -0.2049514  -0.36690286 -0.42936498 -0.43613082
   0.28723514 -0.05479803 -0.49256647 -0.46275946]
 [-0.4122402  -0.11073524  0.04113978 -0.01480164  0.0383864  -0.49637097
  -0.2796773  -0.5309959  -0.16857982  0.31969333]
 [-0.10746217  0.44953793  0.45324087 -0.03292    -0.30730024 -0.19360381
  -0.4000199  -0.20702726  0.08272034  0.44739997]
 [-0.30918157 -0.41633025  0.27014077  0.07483345 -0.30117062 -0.13231125
  -0.68684745  0.74943674  0.772894    0.39140683]]
dense_4/bias:0
(10,)
[ 0.9332138  -0.14348315 -0.1211683  -0.36993608 -0.1071955   0.
  0.33992335  0.04975815 -0.02676181  0.23795979]
dense_5/kernel:0
(10, 10)
[[-3.7525032  -1.8486974  -0.5385986   0.03173798  0.18121998  0.38825303
  -0.6704702  -0.32069027 -0.02122108 -0.5956204 ]
 [ 0.28333527 -0.41041166 -0.10358009  0.05020881 -0.30530655 -0.29567102
  -0.12214583  0.23054785  0.22283775  0.3042258 ]
 [-0.4205724   0.56088114 -0.35792106 -0.06443226 -0.07621638 -0.16979006
  -0.12910515  0.5095675  -0.21795884 -0.48242363]
 [ 1.25366     0.66187024  0.32117176 -0.01635855  1.7305517   0.63231033
   1.0393568  -0.46335226 -0.25664753  1.1927352 ]
 [-0.07927069 -0.05210735  0.5429212  -0.4933083  -0.20552018 -0.05060816
   0.2935426   0.26907015 -0.26461205  0.18000494]
 [ 0.16323024  0.17481685  0.29072338 -0.0653618   0.00819057  0.20188254
   0.06565589 -0.29679435  0.25913996 -0.49012956]
 [ 0.23812558  0.34597313  0.5463213  -0.46333358 -0.43818086  1.395982
  -0.17539605  0.4645449  -0.3849845  -0.35304123]
 [ 0.42017034  0.4135263  -0.17029646 -0.38618982  0.82746375  0.29970282
   0.64774    -0.33931017 -0.534939   -0.07671639]
 [ 0.14072557  0.48345932  0.24924755  0.04841703  0.4156954  -1.8334978
   0.74617606 -0.4523269  -0.3258888   0.47284985]
 [-0.06527811 -0.01866397 -0.37878698 -0.54096574  0.2034494  -0.22119184
   0.64165264  0.3640105  -0.2650918   0.5030939 ]]
dense_5/bias:0
(10,)
[-0.19902235 -0.06235926  0.         -0.1373536   0.11225265 -0.32435998
  0.18787852  0.         -0.1099894   0.1026077 ]
dense_6/kernel:0
(10, 10)
[[ 0.4528121   1.1293772   0.22681034  0.3147435  -0.17348579 -0.32755274
  -0.28385553  0.34322646  0.4169059  -1.85283   ]
 [-0.16709246  0.46110475 -0.34107336 -0.41853967 -0.2700313   0.27231002
  -0.23313269 -0.58939135  0.3870898  -0.31196097]
 [ 0.5206901   0.46484447  0.10625231 -0.05895922 -0.17129493 -0.42804852
   0.10502815 -0.13005522  0.32393223  0.08331913]
 [ 0.24282712 -0.00835898 -0.09451739  0.43871582  0.37529683  0.30059344
  -0.50616986  0.06023166  0.02332038 -0.13199449]
 [-0.01801103  0.5629961  -0.31351432  0.17962976 -0.59040904 -0.26756752
  -0.53337145  0.01927367  0.0265487   0.20292212]
 [-0.58148706  0.15575227 -0.1083349  -1.426131    0.00741446 -0.26571265
  -0.21990657  0.6077976  -0.26926872  0.4535468 ]
 [-0.3823904   0.54770464 -0.2031492  -1.6876327  -0.35518527 -0.00346565
  -0.18874282 -0.67497545 -0.5507281   0.15584615]
 [-0.30603734  0.05640769 -0.06457251  0.18544406  0.4305203  -0.3224263
  -0.04942831 -0.510175    0.02625859 -0.39364427]
 [ 0.17211384 -0.11460559  0.3741755  -0.3953577  -0.13960782 -0.15044081
  -0.36167574 -0.34470955  0.3634026  -0.26380378]
 [-0.13307089  0.22474772 -0.18191573 -0.9771103  -0.12987515  0.03595626
  -0.2878818  -0.43331966  0.0444556   0.19552936]]
dense_6/bias:0
(10,)
[-0.03974373  0.3334143  -0.10976623 -0.32060304 -0.1167181   0.
  0.          0.16193312 -0.04971921 -0.18082854]
dense_7/kernel:0
(10, 1)
[[ 0.03793795]
 [-0.66327393]
 [-0.1274903 ]
 [ 1.2597219 ]
 [-0.32708907]
 [-0.7323913 ]
 [-0.08257663]
 [ 0.780538  ]
 [-0.00512076]
 [ 0.49993232]]
dense_7/bias:0
(1,)
[-0.32606122]
