dense/kernel:0
(5, 5)
[[-2.328848    0.5261742  -0.02325327 -0.6353539   0.25756225]
 [ 0.08705585  0.10582805 -0.7116747  -5.894692    0.50579375]
 [ 0.56870776 -0.53157175 -0.38232857 -0.7306073  -0.17079808]
 [-1.9982551  -0.67111945 -0.33778948 -0.36065638 -0.11322962]
 [ 2.1060476  -0.25910503 -0.14482217 -0.5520407  -0.49637184]]
dense/bias:0
(5,)
[ 0.79505235  0.         -0.336932    2.0314238  -0.32487878]
dense_1/kernel:0
(5, 10)
[[ 0.06905892  2.5479937  -0.40375564 -0.38051084  0.05707168 -0.6177189
  -0.2612021  -0.02611214  0.09774122  0.34198382]
 [ 0.6211048   0.441096    0.1303767   0.42832607  0.45510393 -0.5783307
   0.06017256 -0.55536807  0.40591913  0.31531715]
 [-0.11644747  0.2824932  -0.1769114   0.25049946 -0.27816302 -0.12806062
  -0.7408215  -0.1673375  -0.05839742 -0.2923664 ]
 [-0.4625874   4.001535   -0.56620556 -0.66488105  0.04961491 -0.46095246
  -0.6649604  -0.44919664 -0.89329964 -0.879857  ]
 [-0.2811104  -0.4436609   0.09027579  0.10452203 -0.5072654  -0.7351389
   0.06962296 -0.11221457 -0.5944581  -0.00692718]]
dense_1/bias:0
(10,)
[-0.30006856 -0.12354855 -0.34841433 -0.30517188 -0.29813367 -0.29992828
 -0.30307028  0.         -0.18756875 -0.30023447]
dense_2/kernel:0
(10, 10)
[[ 0.72704035  0.02471696 -0.23488334 -0.07037047 -0.69767535 -0.21298246
   0.595888    0.30615228  0.47709745 -0.4192405 ]
 [-0.04585605 -0.3682649  -0.00821352 -0.20754373 -0.4398728  -0.6167223
  -1.3003119   1.1315718  -3.6065254  -0.11437671]
 [-0.11110806  0.0388887   0.65823776 -0.27596048 -0.65299505 -0.23092338
  -0.14684191 -0.21143699  0.34698874  0.35330728]
 [ 0.61972916 -0.30809283  0.7897383  -0.11847749  0.08436906  0.2342044
   0.3411974  -0.4673248   0.39189073  0.17957276]
 [-0.06190932 -0.34363133 -0.43342137  0.45707083  0.3372302   0.3878032
  -0.5106597  -0.27630538 -0.31150985 -0.48582554]
 [ 0.655521   -0.02517222  0.7742743  -0.03619158  0.44684052  0.1350061
   0.39012864  0.37677646  0.05375343 -0.033709  ]
 [ 0.42716178  0.7490124  -0.06220407 -0.47027755  0.38999587  0.47255978
  -0.11005631  0.28983897 -0.2882689   0.5502512 ]
 [-0.23222771  0.40037656  0.3481251  -0.5174355   0.32326442 -0.15274423
  -0.2850171   0.18717396 -0.21473569  0.45675313]
 [ 0.037667   -0.55457026  0.11221533 -0.41342443 -0.17668407 -0.44349152
   0.7575434  -0.27272913  0.12358241 -0.6773561 ]
 [ 0.11872974  0.22293407  0.5693349   0.40644312 -0.05758397 -0.01279793
  -0.15221877 -0.46176484  0.46878898  0.562267  ]]
dense_2/bias:0
(10,)
[-0.5555741  -0.30018312 -0.33053076  0.         -0.30016252 -0.30026332
  0.79727054 -0.24872513  0.40556046 -0.3001697 ]
dense_3/kernel:0
(10, 10)
[[ 0.353699   -0.03645045 -0.05700715 -0.27343702 -0.02793893  0.39893654
  -0.45039043  0.42603227  0.11462107  0.30353987]
 [ 0.4281311  -0.4135417   0.19884504 -0.36113068  0.15775776  0.55662435
   0.02426571 -0.13247672  0.24825847  0.4926411 ]
 [ 0.05687806 -0.9460478  -0.7797129   0.14336167  0.37495396  0.15963416
  -0.4943692  -0.12104189  0.30165935 -0.42177954]
 [-0.4950403  -0.01130599  0.2557333  -0.37888414  0.5161648  -0.17589527
   0.06800777 -0.28635496  0.19972062  0.08849478]
 [ 0.11238491  0.12836844  0.1392898  -0.39726803 -0.42098963  0.6912975
  -0.2336058  -0.48054302  0.1507883   0.02519029]
 [ 0.18581687 -0.39915517  0.2176568  -0.18127532 -0.52624005  0.07818469
  -0.31348276 -0.43351686 -0.4863595  -0.3220839 ]
 [-1.1723737  -0.32407236 -0.3294788  -0.8287337  -0.7559998   0.01546358
  -0.95330215 -1.2127649   1.169305   -0.01197958]
 [-0.30591685 -1.0225546  -0.06023416 -0.00231785 -0.2512652   0.95846343
  -0.89261854 -0.16680239 -1.2921944  -0.33769703]
 [-0.4298569  -0.693083   -0.4451134   0.4032347   0.20632623 -1.6937655
  -1.258857   -0.1747131   2.0796897  -0.20706081]
 [ 0.6169667  -0.3500147  -0.65059793 -0.61295474 -0.17270827 -0.1655639
  -0.2046122   0.11684281 -0.1217517  -0.21866769]]
dense_3/bias:0
(10,)
[ 0.08520486 -1.1021781  -0.32580417 -0.0217647   0.04537716  0.38543245
 -0.97416115  0.01178578  0.64520574  0.        ]
dense_4/kernel:0
(10, 10)
[[-1.44244444e+00 -8.36143732e-01 -6.53115392e-01  3.69531102e-02
  -7.22564518e-01  2.60510445e-01  5.07652819e-01 -4.50764656e-01
  -1.74321961e-02 -1.60779357e+00]
 [-1.59274131e-01  2.68611431e-01  5.43066978e-01 -2.47748107e-01
   4.71610427e-02 -2.85696983e-03 -1.90698624e-01  3.41615081e-02
  -8.91957879e-02  1.62656844e-01]
 [-9.11750376e-01  2.32192993e-01  5.45832108e-06 -8.78106281e-02
   4.40698974e-02 -5.30354083e-01  2.45504126e-01 -4.49455112e-01
   1.38768956e-01 -2.77737081e-01]
 [-1.14805734e+00 -3.13274413e-01  1.40369341e-01 -3.30541795e-03
   4.43271041e-01 -5.23157060e-01  1.32041082e-01 -7.09720373e-01
  -1.21308625e-01 -2.22553301e+00]
 [-1.39695394e+00  2.64845490e-02 -4.40089315e-01 -4.71114321e-03
  -1.93281919e-01 -1.43241435e-01 -4.43636209e-01 -5.49139321e-01
   1.04951382e-01  3.36100996e-01]
 [-4.29424167e-01 -7.48507380e-01 -3.13674323e-02  6.96418226e-01
  -6.36093497e-01 -5.85445225e-01 -7.15244055e-01 -8.05798888e-01
  -2.25099039e+00 -9.56001461e-01]
 [ 1.46045089e-02 -7.16075003e-02  3.42863202e-01  1.43869638e-01
   2.11575747e-01 -4.36066300e-01 -5.10538638e-01  2.32089236e-01
   4.14830863e-01  3.39746714e-01]
 [-7.19828784e-01  4.81181145e-01 -7.42637157e-01  2.41861120e-02
  -3.98420095e-02  2.31729731e-01  3.72515708e-01 -8.43492925e-01
  -3.78413618e-01 -2.30561525e-01]
 [-8.39312822e-02 -2.67139047e-01 -3.05942029e-01 -1.42908823e+00
  -2.42915243e-01 -1.45379639e+00 -4.53732640e-01  4.22422498e-01
  -9.90205050e-01 -4.37983096e-01]
 [-4.95301336e-01 -4.70299900e-01  2.55262554e-01 -8.16678107e-02
  -2.07036018e-01 -2.87407875e-01  4.73759890e-01  5.02257347e-01
  -3.18635881e-01 -1.73479795e-01]]
dense_4/bias:0
(10,)
[-0.32839516 -0.300255   -0.41553771  0.26220456 -0.30026487  0.12315141
  0.2369083   0.12336737 -0.3768317  -0.29091614]
dense_5/kernel:0
(10, 1)
[[-0.09933175]
 [-0.02726827]
 [-0.08850954]
 [-0.5038743 ]
 [ 0.23496842]
 [-0.2327446 ]
 [-0.07950621]
 [ 0.3414577 ]
 [-1.3731534 ]
 [-0.19478843]]
dense_5/bias:0
(1,)
[0.05271227]
