dense/kernel:0
(13, 13)
[[-4.66120005e-01  2.88941711e-01  4.33014125e-01 -6.91504627e-02
   1.92173533e-02 -4.95424598e-01  2.55308431e-02  9.29884166e-02
   1.26677051e-01 -3.07985812e-01 -7.75149688e-02 -2.54879653e-01
   8.45675543e-02]
 [-1.37767017e-01 -2.11863935e-01 -1.99932858e-01  2.89749235e-01
   2.84000665e-01 -1.38472185e-01  4.64611471e-01 -3.55771855e-02
  -8.15946907e-02  5.52723348e-01 -4.83299583e-01 -4.23570573e-01
   1.35989219e-01]
 [-1.79931745e-01  2.03346595e-01  2.00882122e-01  2.25037590e-01
  -2.04095662e-01  2.72759795e-01  3.71783108e-01  2.47705296e-01
  -2.63084680e-01  4.33522254e-01  4.04482126e-01  4.43364978e-02
   2.48128921e-01]
 [ 1.77369028e-01 -3.43319744e-01 -4.41570312e-01 -1.81699067e-01
   2.53444254e-01  5.19235805e-02 -4.19755071e-01 -2.63727367e-01
  -7.90303871e-02  4.18441623e-01 -5.40851712e-01 -3.91609907e-01
  -3.26235592e-01]
 [ 1.61293194e-01  1.63359806e-01  2.13424698e-01 -4.79640454e-01
  -3.79916698e-01 -6.40176594e-01  1.21650221e-02  1.11502811e-01
  -2.32718229e-01  2.17563361e-01  3.57850432e-01 -4.39786911e-01
  -3.93668219e-04]
 [-3.77900340e-03 -2.93694347e-01  9.79873314e-02 -4.50839639e-01
  -2.03178197e-01 -2.00889781e-01  1.04640655e-01  3.68034095e-01
   2.87194438e-02 -2.63977706e-01  3.14369559e-01  2.73705244e-01
  -1.08429039e+00]
 [ 3.60687017e-01 -1.08167842e-01  1.52555764e-01 -3.76945555e-01
  -1.26147673e-01 -3.95704001e-01  1.69610471e-01 -1.60614196e-02
   1.31767124e-01 -4.57679570e-01 -6.54043257e-01  1.16742492e-01
   7.44630769e-02]
 [-2.66914159e-01  1.61016405e-01  2.43185654e-01 -2.88855314e-01
  -2.96540439e-01  1.37287259e-01 -9.62678418e-02 -3.02832216e-01
   2.18687564e-01  2.71570146e-01 -3.47853780e-01 -3.83505940e-01
  -1.42840162e-01]
 [-1.39888301e-01  2.02608481e-01  2.20969155e-01  1.02259904e-01
   3.50139111e-01  2.97671914e-01  7.40764260e-01 -4.32658568e-02
  -5.44147730e-01 -3.87496054e-01  2.89392203e-01 -3.94170761e-01
  -3.06925979e-02]
 [ 3.13701868e-01  4.46323037e-01 -6.45321161e-02 -1.69342011e-01
   5.91914833e-01 -2.28157878e-01  7.35428154e-01  2.97152877e-01
  -9.71778393e-01  2.34559551e-01  4.76834066e-02  2.18614399e-01
  -5.35775959e-01]
 [ 1.61835730e-01  4.97445911e-01 -6.32613003e-01 -1.99977562e-01
   8.12780559e-01  5.34442306e-01  7.63288856e-01 -9.00965750e-01
  -1.42007208e+00 -4.57906604e-01  4.52612340e-01  2.23919213e-01
  -2.62658633e-02]
 [ 2.82626718e-01  7.97030687e-01  1.83150589e-01 -4.70781028e-01
   1.93352774e-01 -1.93959370e-01 -4.40086350e-02 -3.89034823e-02
   2.30812639e-01  8.49694192e-01 -4.38810706e-01 -2.17987120e-01
  -1.06270564e+00]
 [-3.61082047e-01 -1.45224422e-01 -5.60797751e-01  1.14335373e-01
  -2.39365157e-02  4.05062407e-01 -5.09384554e-03 -1.24214634e-01
  -3.88049781e-02 -6.16620302e-01  3.45356524e-01 -1.25566542e-01
  -1.14577554e-01]]
dense/bias:0
(13,)
[-0.11385819 -0.00740246 -0.14749034 -0.02777346 -0.10222933  0.16003393
  0.00047846  0.15442619  0.25945765 -0.2653783  -0.08818825  0.
  0.339735  ]
dense_1/kernel:0
(13, 14)
[[ 0.10854051  0.4703727   0.31683755  0.3001411  -0.1600677   0.2509284
   0.03079414 -0.04413044  0.25113526 -0.08881871 -0.46379325 -0.42335227
  -0.35660997 -0.25597498]
 [-0.9610153   0.49738494  0.33479694  0.33743274  0.21625991  0.31642938
  -0.16997875 -0.15515672  0.29540378  0.22921662 -0.08296673 -0.41934547
  -0.5392536  -0.2076889 ]
 [-0.28220865 -0.17280704 -0.20776814 -0.44409245  0.20702113 -0.24695344
   0.17698318 -0.41765666  0.34316522  0.36110803 -0.212162   -0.24441451
   0.12509483 -0.02128612]
 [ 0.20335504  0.11247493 -0.39827275 -0.4247514   0.42155743 -0.3759843
  -0.06812745 -0.18995473 -0.08695229 -0.17519006  0.20566738 -0.14076295
  -0.2049215   0.35773692]
 [-0.7461884   0.49124506  0.00648689 -0.5196403   0.03123676  0.5898929
  -0.20300265 -0.35611275  0.6500068   0.16688536  0.08562889 -0.14938171
   0.07160093 -0.32948145]
 [-0.3743771  -0.04806604  0.42027944 -0.21097271 -0.23865958  0.42897516
   0.33302912  0.09479238  0.530494   -0.39396927  0.07166439 -0.3277411
   0.14042103  0.10730226]
 [-0.97699016  0.7131413  -0.35118935 -0.62811315  0.49736512  0.17144637
  -0.0070134  -0.28333208  0.4394729  -0.1815259  -0.2782852  -0.17537095
   0.19199243 -0.390612  ]
 [-0.08425792  0.467779    0.25229117  0.18440858  0.15324213 -0.111224
   0.44775397  0.09465928 -0.05653323 -0.19694316  0.37084532 -0.51960516
   0.5527033   0.18480149]
 [ 0.94880706  0.00710905  0.62556446  0.6588726  -0.04491476  0.0234547
   0.38567582  0.70210737 -0.18811546 -0.41517562 -0.49589872  0.2425689
  -0.5927717   0.40188557]
 [-0.34346828  0.40638384  0.82004726 -0.3931959   0.5680717   1.0106293
  -0.3627552   0.04001037  0.43944746 -0.3133232  -0.1545952   0.27752697
   0.16072616 -0.45508868]
 [-0.30398062  0.23428851 -0.44375184  0.01484351  0.06443333 -0.36943996
  -0.23300844 -0.29312733 -0.17642756 -0.6871717  -0.29424092 -0.3031458
   0.12870865  0.17702809]
 [-0.35652018  0.10967228 -0.37581974  0.1088905  -0.33248806 -0.4570165
   0.4621865   0.20141599  0.13226601  0.23857185  0.3607377   0.25068203
  -0.34946716 -0.36642852]
 [ 0.7086572  -0.04195813  0.0873836   0.45964578 -0.36109897 -0.26061764
   0.5742192   0.5781907   0.14331467  0.08354853 -0.02855418  0.3128631
  -0.0327426  -0.26617092]]
dense_1/bias:0
(14,)
[-0.0054363  -0.07557935  0.24357538  0.27230433 -0.20072995 -0.23034069
  0.28072917  0.21454988 -0.15205568  0.21274482 -0.05163788 -0.18207708
 -0.14422795  0.24735755]
dense_2/kernel:0
(14, 14)
[[-1.28916323e-01  3.16450644e+00  1.42840159e+00  3.79683018e-01
  -2.16545534e+00 -4.11275387e-01 -4.84015018e-01 -1.44639969e-01
   5.47158480e-01 -6.46919906e-01  1.81501222e+00  1.30952704e+00
   2.12136969e-01  1.91191685e+00]
 [-1.72840208e-01 -5.17957270e-01 -1.68971315e-01 -8.51235986e-02
   5.48952520e-01 -4.37348008e-01  5.04866600e-01  3.24707448e-01
   1.49659008e-01  5.61076820e-01  4.76423800e-02  4.29274961e-02
  -4.51594502e-01  2.52951056e-01]
 [ 5.74187279e-01 -9.34472680e-03  6.12558186e-01 -2.99216568e-01
   1.37710333e-01  3.48249972e-02 -1.30627453e-01 -8.07154715e-01
   1.55493960e-01  3.19533020e-01  5.40564954e-01 -2.63845503e-01
  -9.55017358e-02  2.46143922e-01]
 [ 3.28700282e-02 -4.64725554e-01  4.58886057e-01 -1.53570801e-01
   3.44900846e-01 -2.10707933e-01 -4.36230749e-02  5.51642776e-02
   2.04939157e-01 -2.42137149e-01  3.19127560e-01  3.74068528e-01
  -5.90371370e-01  3.68122280e-01]
 [-3.80861878e-01  1.63301319e-01 -5.18405974e-01 -3.74773026e-01
   1.00233816e-01 -4.09900099e-01  2.30596185e-01  4.68190998e-01
   4.26195771e-01 -1.80098484e-03 -3.38989258e-01  1.27383217e-01
  -1.70067370e-01 -3.26962352e-01]
 [ 2.48202696e-01  1.81649953e-01 -1.75108790e-01 -3.55340153e-01
   1.24814302e-01 -1.17992669e-01  8.85750949e-02 -5.21089017e-01
   4.68637407e-01  4.98166412e-01 -1.49055123e-01 -5.02067327e-01
  -6.05734587e-02 -1.49004504e-01]
 [ 2.52173752e-01 -2.81353474e-01  4.83213335e-01 -2.84514546e-01
   1.06667921e-01 -3.80496740e-01 -3.33741248e-01 -1.57659933e-01
  -2.05919668e-01 -1.71913743e-01  1.28006255e-02  5.00942290e-01
  -1.65994734e-01 -5.55045940e-02]
 [-1.14882752e-01  3.71032000e-01  9.16048586e-02 -2.61787236e-01
   2.29415983e-01  2.70095825e-01 -3.61926228e-01  5.49124852e-02
   3.51123720e-01 -1.36636242e-01  6.14094853e-01  4.77148414e-01
  -5.18066511e-02  3.93710047e-01]
 [-5.99463657e-02  7.67071620e-02  6.88864738e-02  5.93861341e-02
  -4.89035323e-02  9.36942101e-02  4.68763441e-01 -1.49670511e-01
   4.43524271e-01  4.72125769e-01 -3.44657034e-01  5.42773828e-02
  -6.27696991e-01 -8.48420337e-02]
 [ 4.23887789e-01 -2.99290121e-02 -2.53675818e-01  1.70779884e-01
  -1.09053463e-01 -1.36030167e-01 -5.17455816e-01 -3.04874107e-02
  -2.04178900e-01  7.29340687e-02 -2.96732366e-01  1.66069195e-01
   1.47564843e-01 -1.22393578e-01]
 [ 2.75266498e-01  1.55581430e-01 -1.30278394e-01  5.69907427e-02
  -1.07738316e-01  4.61001575e-01  2.33984292e-02 -3.91333580e-01
   1.77133810e-02  2.24161953e-01 -1.88680947e-01 -1.90064713e-01
   1.74063623e-01 -1.10320300e-01]
 [ 4.31219451e-02 -1.58645421e-01 -2.73387700e-01 -1.38371587e-01
   1.97689563e-01  3.39770973e-01 -3.17240953e-01 -9.23070014e-02
  -1.28000438e-01  5.98508716e-02  3.75660136e-02  3.33079964e-01
   2.88322270e-01 -1.49659708e-01]
 [-4.12654579e-01  5.70368707e-01 -6.76782012e-01 -1.12177461e-01
   1.41581327e-01 -2.92274714e-01  1.39034688e-01 -2.84592330e-01
  -3.29951197e-01 -1.33425176e-01 -4.61464286e-01 -6.08529672e-02
   2.29355007e-01 -6.15344167e-01]
 [ 2.45638713e-02 -3.28503489e-01  2.35359624e-01 -1.41109914e-01
   5.00721931e-01  4.19717610e-01 -4.75019142e-02 -1.69818118e-01
   4.32650447e-01  2.95378953e-01 -1.08597003e-01  5.64912140e-01
  -2.92259395e-01  4.24109697e-01]]
dense_2/bias:0
(14,)
[ 0.4084524  -0.33655798  0.25630534  0.          0.26429754  0.
 -0.05781937  0.05357471 -0.20392096 -0.10163938  0.1307483   0.16776481
 -0.12367584  0.18353674]
dense_3/kernel:0
(14, 14)
[[-0.30991843  0.30540267 -1.0371623   0.03810698 -0.27766907  0.3225798
  -0.2818361   0.005867   -0.5086624   0.23152094  0.1596473  -0.26589686
  -0.00766181 -0.2648042 ]
 [-0.00767052  0.5216543  -0.22652167 -0.34469196  0.01656039  0.3886876
   0.06132897  0.38932815  0.754055    0.39677545 -0.45915058 -0.25312987
   0.13605776  0.94087636]
 [-0.32074398  0.1906521   0.22084258 -0.46202493 -0.08963148  0.47793317
  -0.54384583  0.408855   -0.08146625 -0.4704363  -0.28432173  0.03658598
   0.30754182  0.16923967]
 [-0.19073856 -0.40703157  0.45752758 -0.04749295  0.3158524  -0.05024341
   0.30320328  0.04056215 -0.17017743  0.19896317 -0.24933328 -0.26230827
  -0.4170951  -0.25060302]
 [-0.20060289 -0.2371152  -0.16699271 -0.32917064 -0.5864308  -0.018707
   0.3154995  -0.51191026 -1.0380417  -0.21538633 -0.02072326 -0.06939407
   0.36487293 -1.4829575 ]
 [ 0.31471872  0.04570866  0.31255507  0.24956095  0.46192682 -0.14492548
  -0.18749037  0.22653103  0.13362151 -0.14093918 -0.44434786 -0.09951547
   0.29946214  0.05891883]
 [ 0.31049985 -0.21820363  0.08763443 -0.4272828  -0.3905181  -0.08701926
   0.39897817 -0.46029747 -0.45595062  0.10884252 -0.02340835 -0.31038034
   0.12052781 -0.61394215]
 [ 0.09459466 -0.0292812  -0.10245877 -0.34572947 -0.37582505 -0.51049554
   0.23570244  0.31080508  0.37901342  0.04841703  0.15886489 -0.27924013
   0.47151798 -0.11171404]
 [ 0.225241   -0.11027751  0.52864    -0.02259655  0.26013204  0.13246796
   0.62166774  0.16664116 -0.323007    0.26234585 -0.50321233 -0.24036676
  -0.26347286  0.4059464 ]
 [-0.44449857 -0.30863237  0.17109782 -0.14999714  0.21160729 -0.44321808
   0.24424332 -0.7153385  -0.5719223  -0.33739647  0.15159132 -0.19509968
  -0.4754457  -0.6192087 ]
 [-0.12606514 -0.23216759 -0.4071108  -0.40509042 -0.32269064 -0.07720795
  -0.3072506   0.55175227  0.2865095   0.17120667 -0.41454545  0.0907717
   0.6200874   0.36651003]
 [-0.2923213   0.40124455 -0.15283564  0.2558222  -0.4108279   0.19982311
  -0.04024117  0.42185816 -0.07334116 -0.33977252 -0.11698715  0.06978405
   0.32530192 -0.3120162 ]
 [-0.11176437  0.1514355  -0.05462584 -0.37258667  0.17758155 -0.54433894
   0.05420542  0.1239017  -0.40877208  0.30847502  0.07197046  0.2933182
   0.05439269  0.23822123]
 [ 0.11487964 -0.17780855 -0.08830059 -0.4789315  -0.46563908  0.3885194
   0.15808621  0.5557406   0.11038601 -0.07940637  0.17410643 -0.03162489
   0.48174983 -0.10480099]]
dense_3/bias:0
(14,)
[-0.03329344  0.05346079 -0.09131074 -0.02392412 -0.08373509  0.20319887
 -0.13760474  0.18302768  0.03509307 -0.01265896 -0.09275094 -0.04254065
  0.2809749  -0.04861006]
dense_4/kernel:0
(14, 14)
[[ 1.30144611e-01  3.70044410e-01 -3.81139278e-01  1.24496460e-01
   2.96216786e-01 -3.36081497e-02 -2.54301634e-02 -1.60845846e-01
   1.85740009e-01 -2.64198422e-01  2.71597505e-01  6.67755082e-02
   2.06114039e-01 -2.52186358e-01]
 [ 2.12661698e-01 -4.14069027e-01 -1.78361207e-01  2.45275483e-01
  -4.07429665e-01  8.84702206e-02  8.35938826e-02 -2.20860586e-01
   3.35086346e-01  2.90068477e-01  1.49479866e-01 -3.60971749e-01
   1.51883081e-01 -5.08766294e-01]
 [ 9.02617723e-02  2.21409604e-01 -3.42977822e-01  6.29979819e-02
  -3.86469781e-01  3.04230183e-01  4.03615177e-01 -2.38233611e-01
   5.30220866e-01 -3.63359034e-01 -3.16554993e-01  2.98778594e-01
   4.40475553e-01  3.85267019e-01]
 [ 2.72820979e-01 -9.79438424e-02 -3.96397322e-01 -2.78729022e-01
  -1.71646714e-01  2.50002518e-02 -1.04042709e-01  3.35922837e-01
   3.15700471e-01  6.36170432e-02  1.29260540e-01 -1.22260869e-01
  -5.88098802e-02  1.58933789e-01]
 [ 4.83117402e-02 -5.68796583e-02  1.76029384e-01 -4.27577466e-01
   3.22977006e-01  2.54716784e-01  2.94411540e-01  6.11191392e-02
   2.71433387e-02 -4.30317044e-01  2.98777401e-01  4.45614994e-01
   3.68612081e-01  4.62339342e-01]
 [ 4.25146878e-01 -2.36925006e-01 -5.88398278e-02 -1.87341459e-02
  -1.03764147e-01  7.34240341e-04  4.37797487e-01 -3.47226232e-01
   2.69150138e-01 -3.90366942e-01 -8.75460207e-02 -5.41635096e-01
   4.24050331e-01 -1.37092531e-01]
 [-5.43260694e-01 -3.98487926e-01 -4.45153117e-01 -6.55757859e-02
  -4.55665499e-01 -7.03330198e-03 -1.45397902e-01  5.14296234e-01
   5.37812591e-01 -3.38084280e-01 -3.77055407e-01  4.15059298e-01
  -2.36321464e-02  2.21202478e-01]
 [ 3.36896181e-01 -3.00325423e-01 -3.88082325e-01 -1.02436878e-02
  -2.39675671e-01  2.47177690e-01  5.55910289e-01 -4.39486682e-01
   1.05616704e-01  1.68078288e-01 -2.82607079e-01  1.04634546e-01
   4.81508166e-01 -1.82620049e-01]
 [ 1.61684752e-01 -1.71498507e-01 -1.49232656e-01  7.82102168e-01
  -3.34582895e-01  4.28268671e-01  8.06603074e-01  3.35646272e-01
  -5.85820735e-01 -3.02838888e-02 -2.50038862e-01 -3.67741972e-01
   4.69326317e-01 -5.11363506e-01]
 [-4.12441939e-01  1.28169492e-01  2.48808265e-01  2.47002453e-01
  -3.27755749e-01 -2.21113451e-02  9.97097120e-02 -1.84973300e-01
   1.35606676e-02 -3.13073359e-02 -1.05697960e-01 -1.94749579e-01
  -1.97787777e-01 -1.22441217e-01]
 [-4.20582086e-01 -1.23903573e-01  2.77420938e-01 -4.39330697e-01
   2.46870577e-01 -3.20795655e-01 -2.98643261e-01 -3.05108815e-01
  -1.77517042e-01 -2.09082544e-01  3.76094580e-01 -2.96680212e-01
   6.61885738e-02 -6.52787834e-02]
 [-3.54460366e-02  2.49893486e-01 -2.78649986e-01  8.25632811e-02
   2.48869717e-01  1.05323948e-01 -1.18930705e-01 -3.27245414e-01
   7.69233629e-02 -3.28532398e-01  3.44312668e-01  2.49957919e-01
  -4.34608877e-01  7.87548572e-02]
 [ 4.62002866e-03 -1.84573531e-02 -1.76153421e-01  3.73063385e-01
  -6.74774349e-02 -3.08041990e-01  2.75376230e-01 -2.95151770e-01
  -1.56779706e-01 -3.20812494e-01 -1.67053938e-02 -9.63250641e-03
   2.51323581e-01 -1.11159825e+00]
 [ 4.83814627e-01  2.77626961e-01 -3.70022953e-02  1.18392766e+00
   2.67945349e-01  3.28542441e-01  1.29337966e+00 -1.28749385e-01
  -7.80882001e-01  4.64688465e-02  2.82228887e-02  3.45500737e-01
   1.63501039e-01 -1.10357977e-01]]
dense_4/bias:0
(14,)
[ 0.09128106 -0.0300109   0.          0.19168986  0.          0.0124738
  0.22884037 -0.08870653 -0.12901111 -0.05036087  0.         -0.06678664
  0.0240057  -0.19946067]
dense_5/kernel:0
(14, 14)
[[-7.39407986e-02 -3.31831276e-01 -8.21307063e-01  1.47284642e-01
  -3.22375864e-01 -4.02247190e-01  9.73705053e-02  1.69910058e-01
   2.64657021e-01  4.59305614e-01 -2.80775875e-01 -5.01746237e-01
  -3.10532629e-01 -1.97782591e-01]
 [-1.22799397e-01  1.18836962e-01  2.78705508e-01  7.13360533e-02
  -1.02552831e-01 -8.12526047e-02 -2.21658915e-01  2.02310503e-01
   3.84134203e-01 -3.10804665e-01  3.56747299e-01 -3.94565016e-01
   3.72328669e-01 -3.59240055e-01]
 [-4.41826761e-01 -3.28147441e-01  2.11376846e-02 -4.19735909e-04
   1.22683585e-01 -2.23151952e-01 -2.39967138e-01  4.79052067e-02
  -2.92237997e-02  2.56789863e-01 -1.43005669e-01  3.58935118e-01
  -2.53517151e-01 -4.05673176e-01]
 [ 1.72687411e-01 -2.31632560e-01  4.71059233e-01 -4.00896221e-01
  -5.16434126e-02  2.78246641e-01 -2.72837102e-01  3.33045088e-02
   1.40443727e-01  4.81881559e-01 -3.45361419e-02  2.70866361e-02
  -4.79319394e-01 -1.32782161e+00]
 [ 1.87402964e-03  3.90663028e-01  9.16615725e-02 -2.91403532e-02
  -3.69133741e-01  1.22618794e-01 -1.23097122e-01  2.59067714e-01
   2.92339742e-01  1.84446037e-01  8.52562189e-02 -2.00625181e-01
  -3.74950945e-01 -3.23077738e-01]
 [-3.57172973e-02 -2.84628421e-01 -8.01977292e-02  2.68759370e-01
   2.56351888e-01 -1.53726608e-01  3.02581519e-01  4.44432348e-01
   2.29683012e-01  1.72171324e-01  2.88909435e-01 -9.43675116e-02
  -4.14504886e-01 -3.33700001e-01]
 [-2.66155154e-01 -1.90150931e-01 -1.74503013e-01 -3.00033242e-01
  -2.30777040e-01 -9.56722796e-02 -1.88094988e-01 -4.75755543e-01
   4.81386125e-01  1.88123778e-01  4.37440313e-02 -1.35143682e-01
   2.87865132e-01 -1.12954605e+00]
 [-3.45242202e-01  1.57167286e-01  4.69432682e-01 -3.52036431e-02
  -4.54744786e-01 -9.80412960e-02  4.88136709e-02 -1.79434761e-01
  -5.82030594e-01  1.21152014e-01  2.22193882e-01  1.15923166e-01
  -2.74721503e-01  5.70635498e-01]
 [-1.91880852e-01 -2.58618072e-02  6.54023886e-02  4.41174507e-01
  -2.87700027e-01  2.81705618e-01 -1.19968474e-01  5.40486217e-01
  -1.58200294e-01 -1.85666382e-01 -5.58955908e-01  3.97192240e-01
  -3.22008878e-02 -2.69609541e-01]
 [ 2.27422476e-01  4.15738225e-02  3.70987803e-01 -3.74169573e-02
   3.80866951e-03  2.78397828e-01 -2.92505264e-01 -8.11925381e-02
  -1.22660384e-01  1.24853915e-02  5.38095087e-02  5.01654744e-02
  -2.97770500e-01 -3.31089258e-01]
 [ 7.27349520e-02 -1.02691382e-01  2.36639738e-01 -2.25125521e-01
   1.67533159e-01 -4.26867306e-02 -3.50685239e-01  1.81452572e-01
  -3.74687016e-02 -3.77093256e-01 -3.97733420e-01  3.00857723e-02
   1.68592215e-01  5.84530234e-02]
 [ 3.71266007e-02 -1.21309988e-01  5.41971445e-01  6.41587377e-01
   2.19823316e-01 -2.67939806e-01 -8.90086126e-03 -1.72816396e-01
  -3.25451523e-01 -2.87968423e-02  2.54616797e-01 -8.32666531e-02
  -2.89661765e-01  5.94263434e-01]
 [ 8.56167004e-02 -2.00580031e-01  9.30242017e-02  3.45993310e-01
   3.13709229e-01 -4.43990439e-01 -4.71390754e-01  1.84205458e-01
   4.76494908e-01  2.22750828e-01  1.05726039e-02 -9.23116654e-02
   3.12169548e-03 -7.53535628e-02]
 [ 3.17482620e-01  7.81090036e-02  2.69876391e-01  3.16059917e-01
  -2.71095484e-01 -2.69172490e-01 -4.28406179e-01  1.44717276e-01
  -2.46002614e-01 -4.47053611e-01  7.10788295e-02  6.11270189e-01
  -8.77243057e-02  9.83086348e-01]]
dense_5/bias:0
(14,)
[-0.03112171 -0.14717281 -0.10071068 -0.03569234  0.11008512 -0.0267091
 -0.13480797 -0.06161526  0.09948768  0.16175377 -0.12685198 -0.03576616
 -0.0863358  -0.24296586]
dense_6/kernel:0
(14, 1)
[[ 0.01005606]
 [-0.04415671]
 [ 0.5064149 ]
 [ 0.65134966]
 [-0.18679012]
 [ 0.18907699]
 [-0.19782989]
 [ 0.31860277]
 [-0.7095809 ]
 [-0.22502986]
 [ 0.03344056]
 [ 0.10169376]
 [ 0.05702853]
 [ 0.5298415 ]]
dense_6/bias:0
(1,)
[-0.16829588]
